Language model created by QuickLM on Mon Feb 13 17:24:09 EST 2017
Copyright (c) 1996-2010 Carnegie Mellon University and Alexander I. Rudnicky

The model is in standard ARPA format, designed by Doug Paul while he was at MITRE.

The code that was used to produce this language model is available in Open Source.
Please visit http://www.speech.cs.cmu.edu/tools/ for more information

The (fixed) discount mass is 0.5. The backoffs are computed using the ratio method.
This model based on a corpus of 12 sentences and 26 words

\data\
ngram 1=26
ngram 2=39
ngram 3=33

\1-grams:
-1.0000 </s> -0.3010
-1.0000 <s> -0.2553
-2.0792 A -0.2974
-2.0792 ADDRESSES -0.2553
-1.6021 ARE -0.2900
-2.0792 HELLO -0.2974
-2.0792 HEY -0.2974
-2.0792 HOW -0.2900
-2.0792 IP -0.2974
-1.6021 IS -0.2900
-2.0792 IT -0.2553
-2.0792 JOKE -0.2553
-2.0792 ME -0.2974
-2.0792 MY -0.2974
-2.0792 MYCROFT -0.2553
-2.0792 ROBOT -0.2553
-1.7782 SPELL -0.2863
-2.0792 STOP -0.2553
-2.0792 TELL -0.2974
-1.7782 THE -0.2863
-1.6021 TIME -0.2430
-2.0792 WEATHER -0.2553
-1.4771 WHAT -0.2672
-2.0792 WHO -0.2900
-2.0792 WORLD -0.2553
-1.7782 YOU -0.2553

\2-grams:
-1.3802 <s> HELLO 0.0000
-1.3802 <s> HEY 0.0000
-1.3802 <s> HOW 0.0000
-1.0792 <s> SPELL 0.0000
-1.3802 <s> STOP 0.0000
-1.3802 <s> TELL 0.0000
-0.7782 <s> WHAT 0.0000
-1.3802 <s> WHO 0.0000
-0.3010 A JOKE 0.0000
-0.3010 ADDRESSES </s> -0.3010
-0.7782 ARE MY 0.0000
-0.4771 ARE YOU 0.0000
-0.3010 HELLO WORLD 0.0000
-0.3010 HEY MYCROFT 0.0000
-0.3010 HOW ARE -0.1249
-0.3010 IP ADDRESSES 0.0000
-0.7782 IS IT 0.0000
-0.4771 IS THE 0.0000
-0.3010 IT </s> -0.3010
-0.3010 JOKE </s> -0.3010
-0.3010 ME A 0.0000
-0.3010 MY IP 0.0000
-0.3010 MYCROFT </s> -0.3010
-0.3010 ROBOT </s> -0.3010
-0.6021 SPELL ROBOT 0.0000
-0.6021 SPELL TIME -0.1249
-0.3010 STOP </s> -0.3010
-0.3010 TELL ME 0.0000
-0.6021 THE TIME -0.1249
-0.6021 THE WEATHER 0.0000
-0.4771 TIME </s> -0.3010
-0.7782 TIME IS -0.2218
-0.3010 WEATHER </s> -0.3010
-0.9031 WHAT ARE -0.2218
-0.6021 WHAT IS -0.1249
-0.9031 WHAT TIME -0.2218
-0.3010 WHO ARE -0.1249
-0.3010 WORLD </s> -0.3010
-0.3010 YOU </s> -0.3010

\3-grams:
-0.3010 <s> HELLO WORLD
-0.3010 <s> HEY MYCROFT
-0.3010 <s> HOW ARE
-0.6021 <s> SPELL ROBOT
-0.6021 <s> SPELL TIME
-0.3010 <s> STOP </s>
-0.3010 <s> TELL ME
-0.9031 <s> WHAT ARE
-0.6021 <s> WHAT IS
-0.9031 <s> WHAT TIME
-0.3010 <s> WHO ARE
-0.3010 A JOKE </s>
-0.3010 ARE MY IP
-0.3010 ARE YOU </s>
-0.3010 HELLO WORLD </s>
-0.3010 HEY MYCROFT </s>
-0.3010 HOW ARE YOU
-0.3010 IP ADDRESSES </s>
-0.3010 IS IT </s>
-0.6021 IS THE TIME
-0.6021 IS THE WEATHER
-0.3010 ME A JOKE
-0.3010 MY IP ADDRESSES
-0.3010 SPELL ROBOT </s>
-0.3010 SPELL TIME </s>
-0.3010 TELL ME A
-0.3010 THE TIME </s>
-0.3010 THE WEATHER </s>
-0.3010 TIME IS IT
-0.3010 WHAT ARE MY
-0.3010 WHAT IS THE
-0.3010 WHAT TIME IS
-0.3010 WHO ARE YOU

\end\
