Language model created by QuickLM on Wed Mar  8 22:04:31 EST 2017
Copyright (c) 1996-2010 Carnegie Mellon University and Alexander I. Rudnicky

The model is in standard ARPA format, designed by Doug Paul while he was at MITRE.

The code that was used to produce this language model is available in Open Source.
Please visit http://www.speech.cs.cmu.edu/tools/ for more information

The (fixed) discount mass is 0.5. The backoffs are computed using the ratio method.
This model based on a corpus of 21 sentences and 48 words

\data\
ngram 1=48
ngram 2=73
ngram 3=61

\1-grams:
-1.0162 </s> -0.3010
-1.0162 <s> -0.2526
-2.3385 A -0.2990
-2.3385 AM -0.2990
-2.3385 AMBULANCE -0.2570
-2.3385 AN -0.2990
-1.8613 ARE -0.2950
-2.3385 BROADCAST -0.2990
-2.0374 CALL -0.2526
-2.3385 CASUALITY -0.2570
-2.3385 CONNECT -0.2990
-2.0374 CONTROL -0.2970
-2.3385 DISTRESS -0.2970
-2.3385 FIRE -0.2990
-2.3385 HEY -0.2970
-2.3385 HOW -0.2950
-2.3385 HYDRANT -0.2570
-2.3385 I -0.2570
-2.3385 INCIDENT -0.2570
-1.6395 IS -0.2869
-2.3385 IT -0.2570
-2.3385 LEVEL -0.2570
-2.3385 LOCATE -0.2990
-2.0374 LOCATION -0.2459
-2.3385 MESSAGE -0.2570
-2.0374 MY -0.2950
-2.0374 MYCROFT -0.2570
-2.3385 OFF -0.2950
-2.3385 OXYGEN -0.2990
-2.3385 PRESSURE -0.2570
-2.3385 PUMP -0.2990
-2.3385 REGISTER -0.2990
-2.3385 REPORT -0.2990
-2.3385 REQUEST -0.2990
-2.0374 ROOM -0.2570
-2.3385 SCREEN -0.2570
-2.3385 SEND -0.2990
-2.3385 SHARE -0.2970
-2.3385 TEMPERATURE -0.2570
-1.8613 THE -0.2950
-2.3385 THIS -0.2570
-2.3385 TIME -0.2910
-2.3385 TO -0.2970
-2.3385 TURN -0.2990
-1.5603 WHAT -0.2785
-2.3385 WHERE -0.2990
-2.3385 WHO -0.2950
-1.8613 YOU -0.2570

\2-grams:
-1.6232 <s> BROADCAST 0.0000
-1.6232 <s> CALL -0.1761
-1.6232 <s> CONNECT 0.0000
-1.6232 <s> HEY 0.0000
-1.6232 <s> HOW 0.0000
-1.6232 <s> LOCATE 0.0000
-1.6232 <s> MYCROFT 0.0000
-1.6232 <s> REGISTER 0.0000
-1.6232 <s> REPORT 0.0000
-1.6232 <s> REQUEST 0.0000
-1.6232 <s> SEND 0.0000
-1.6232 <s> SHARE 0.0000
-1.6232 <s> TURN 0.0000
-0.8451 <s> WHAT 0.0000
-1.6232 <s> WHERE 0.0000
-1.6232 <s> WHO 0.0000
-0.3010 A CASUALITY 0.0000
-0.3010 AM I 0.0000
-0.3010 AMBULANCE </s> -0.3010
-0.3010 AN INCIDENT 0.0000
-0.3010 ARE YOU 0.0000
-0.3010 BROADCAST MESSAGE 0.0000
-0.6021 CALL </s> -0.3010
-0.6021 CALL CONTROL 0.0000
-0.3010 CASUALITY </s> -0.3010
-0.3010 CONNECT TO 0.0000
-0.3010 CONTROL ROOM 0.0000
-0.3010 DISTRESS CALL -0.1761
-0.3010 FIRE HYDRANT 0.0000
-0.3010 HEY MYCROFT 0.0000
-0.3010 HOW ARE 0.0000
-0.3010 HYDRANT </s> -0.3010
-0.3010 I </s> -0.3010
-0.3010 INCIDENT </s> -0.3010
-1.0000 IS IT 0.0000
-1.0000 IS MY -0.1761
-0.6990 IS THE -0.1249
-1.0000 IS THIS 0.0000
-0.3010 IT </s> -0.3010
-0.3010 LEVEL </s> -0.3010
-0.3010 LOCATE FIRE 0.0000
-0.6021 LOCATION </s> -0.3010
-0.6021 LOCATION IS -0.2553
-0.3010 MESSAGE </s> -0.3010
-0.6021 MY LOCATION -0.1761
-0.6021 MY OXYGEN 0.0000
-0.3010 MYCROFT </s> -0.3010
-0.3010 OFF THE -0.2218
-0.3010 OXYGEN LEVEL 0.0000
-0.3010 PRESSURE </s> -0.3010
-0.3010 PUMP PRESSURE 0.0000
-0.3010 REGISTER AN 0.0000
-0.3010 REPORT A 0.0000
-0.3010 REQUEST AMBULANCE 0.0000
-0.3010 ROOM </s> -0.3010
-0.3010 SCREEN </s> -0.3010
-0.3010 SEND DISTRESS 0.0000
-0.3010 SHARE MY -0.1761
-0.3010 TEMPERATURE </s> -0.3010
-0.7782 THE PUMP 0.0000
-0.7782 THE SCREEN 0.0000
-0.7782 THE TEMPERATURE 0.0000
-0.3010 THIS </s> -0.3010
-0.3010 TIME IS -0.2553
-0.3010 TO CONTROL 0.0000
-0.3010 TURN OFF 0.0000
-1.0792 WHAT ARE 0.0000
-0.6021 WHAT IS -0.1461
-1.0792 WHAT LOCATION -0.1761
-1.0792 WHAT TIME 0.0000
-0.3010 WHERE AM 0.0000
-0.3010 WHO ARE 0.0000
-0.3010 YOU </s> -0.3010

\3-grams:
-0.3010 <s> BROADCAST MESSAGE
-0.3010 <s> CALL CONTROL
-0.3010 <s> CONNECT TO
-0.3010 <s> HEY MYCROFT
-0.3010 <s> HOW ARE
-0.3010 <s> LOCATE FIRE
-0.3010 <s> MYCROFT </s>
-0.3010 <s> REGISTER AN
-0.3010 <s> REPORT A
-0.3010 <s> REQUEST AMBULANCE
-0.3010 <s> SEND DISTRESS
-0.3010 <s> SHARE MY
-0.3010 <s> TURN OFF
-1.0792 <s> WHAT ARE
-0.6021 <s> WHAT IS
-1.0792 <s> WHAT LOCATION
-1.0792 <s> WHAT TIME
-0.3010 <s> WHERE AM
-0.3010 <s> WHO ARE
-0.3010 A CASUALITY </s>
-0.3010 AM I </s>
-0.3010 AN INCIDENT </s>
-0.3010 ARE YOU </s>
-0.3010 BROADCAST MESSAGE </s>
-0.3010 CALL CONTROL ROOM
-0.3010 CONNECT TO CONTROL
-0.3010 CONTROL ROOM </s>
-0.3010 DISTRESS CALL </s>
-0.3010 FIRE HYDRANT </s>
-0.3010 HEY MYCROFT </s>
-0.3010 HOW ARE YOU
-0.3010 IS IT </s>
-0.3010 IS MY OXYGEN
-0.6021 IS THE PUMP
-0.6021 IS THE TEMPERATURE
-0.3010 IS THIS </s>
-0.3010 LOCATE FIRE HYDRANT
-0.3010 LOCATION IS THIS
-0.3010 MY LOCATION </s>
-0.3010 MY OXYGEN LEVEL
-0.3010 OFF THE SCREEN
-0.3010 OXYGEN LEVEL </s>
-0.3010 PUMP PRESSURE </s>
-0.3010 REGISTER AN INCIDENT
-0.3010 REPORT A CASUALITY
-0.3010 REQUEST AMBULANCE </s>
-0.3010 SEND DISTRESS CALL
-0.3010 SHARE MY LOCATION
-0.3010 THE PUMP PRESSURE
-0.3010 THE SCREEN </s>
-0.3010 THE TEMPERATURE </s>
-0.3010 TIME IS IT
-0.3010 TO CONTROL ROOM
-0.3010 TURN OFF THE
-0.3010 WHAT ARE YOU
-0.7782 WHAT IS MY
-0.4771 WHAT IS THE
-0.3010 WHAT LOCATION IS
-0.3010 WHAT TIME IS
-0.3010 WHERE AM I
-0.3010 WHO ARE YOU

\end\
