Language model created by QuickLM on Thu Dec  1 14:43:47 EST 2016
Copyright (c) 1996-2010 Carnegie Mellon University and Alexander I. Rudnicky

The model is in standard ARPA format, designed by Doug Paul while he was at MITRE.

The code that was used to produce this language model is available in Open Source.
Please visit http://www.speech.cs.cmu.edu/tools/ for more information

The (fixed) discount mass is 0.5. The backoffs are computed using the ratio method.
This model based on a corpus of 16 sentences and 37 words

\data\
ngram 1=37
ngram 2=55
ngram 3=46

\1-grams:
-1.0107 </s> -0.3010
-1.0107 <s> -0.2564
-2.2148 A -0.2984
-2.2148 ADDRESS -0.2564
-1.9138 ARE -0.2957
-2.2148 COMPUTER -0.2564
-2.2148 FIREFOX -0.2564
-2.2148 HELLO -0.2984
-2.2148 HEY -0.2984
-2.2148 HOW -0.2957
-2.2148 I -0.2984
-1.5159 IS -0.2848
-1.9138 IT -0.2535
-2.2148 JOBS -0.2564
-2.2148 JOKE -0.2564
-2.2148 LAUNCH -0.2984
-2.2148 ME -0.2984
-2.2148 MY -0.2984
-2.2148 MYCROFT -0.2564
-2.2148 P -0.2984
-2.2148 RAIN -0.2984
-2.2148 ROBOT -0.2564
-2.2148 SAY -0.2984
-2.2148 SOMETHING -0.2564
-1.7377 SPELL -0.2930
-2.2148 STEVE -0.2984
-2.2148 TELL -0.2984
-1.9138 THE -0.2930
-1.9138 TIME -0.2415
-2.2148 TODAY? -0.2564
-2.2148 VOICE -0.2564
-2.2148 WEATHER -0.2564
-1.6128 WHAT -0.2821
-1.9138 WHO -0.2821
-2.2148 WILL -0.2957
-2.2148 WORLD -0.2564
-1.9138 YOU -0.2564

\2-grams:
-1.5051 <s> HELLO 0.0000
-1.5051 <s> HEY 0.0000
-1.5051 <s> HOW 0.0000
-1.5051 <s> LAUNCH 0.0000
-1.5051 <s> SAY 0.0000
-1.0280 <s> SPELL 0.0000
-1.5051 <s> TELL 0.0000
-0.9031 <s> WHAT 0.0000
-1.2041 <s> WHO 0.0000
-1.5051 <s> WILL 0.0000
-0.3010 A JOKE 0.0000
-0.3010 ADDRESS </s> -0.3010
-0.3010 ARE YOU 0.0000
-0.3010 COMPUTER </s> -0.3010
-0.3010 FIREFOX </s> -0.3010
-0.3010 HELLO WORLD 0.0000
-0.3010 HEY MYCROFT 0.0000
-0.3010 HOW ARE 0.0000
-0.3010 I P 0.0000
-1.0000 IS IT -0.1761
-1.0000 IS MY 0.0000
-1.0000 IS STEVE 0.0000
-0.6990 IS THE 0.0000
-0.6021 IT </s> -0.3010
-0.6021 IT RAIN 0.0000
-0.3010 JOBS </s> -0.3010
-0.3010 JOKE </s> -0.3010
-0.3010 LAUNCH FIREFOX 0.0000
-0.3010 ME A 0.0000
-0.3010 MY I 0.0000
-0.3010 MYCROFT </s> -0.3010
-0.3010 P ADDRESS 0.0000
-0.3010 RAIN TODAY? 0.0000
-0.3010 ROBOT </s> -0.3010
-0.3010 SAY SOMETHING 0.0000
-0.3010 SOMETHING </s> -0.3010
-0.7782 SPELL COMPUTER 0.0000
-0.7782 SPELL ROBOT 0.0000
-0.7782 SPELL VOICE 0.0000
-0.3010 STEVE JOBS 0.0000
-0.3010 TELL ME 0.0000
-0.6021 THE TIME -0.1761
-0.6021 THE WEATHER 0.0000
-0.6021 TIME </s> -0.3010
-0.6021 TIME IS -0.2553
-0.3010 TODAY? </s> -0.3010
-0.3010 VOICE </s> -0.3010
-0.3010 WEATHER </s> -0.3010
-0.4260 WHAT IS -0.1461
-0.9031 WHAT TIME -0.1761
-0.6021 WHO ARE 0.0000
-0.6021 WHO IS -0.2553
-0.3010 WILL IT -0.1761
-0.3010 WORLD </s> -0.3010
-0.3010 YOU </s> -0.3010

\3-grams:
-0.3010 <s> HELLO WORLD
-0.3010 <s> HEY MYCROFT
-0.3010 <s> HOW ARE
-0.3010 <s> LAUNCH FIREFOX
-0.3010 <s> SAY SOMETHING
-0.7782 <s> SPELL COMPUTER
-0.7782 <s> SPELL ROBOT
-0.7782 <s> SPELL VOICE
-0.3010 <s> TELL ME
-0.4260 <s> WHAT IS
-0.9031 <s> WHAT TIME
-0.6021 <s> WHO ARE
-0.6021 <s> WHO IS
-0.3010 <s> WILL IT
-0.3010 A JOKE </s>
-0.3010 ARE YOU </s>
-0.3010 HELLO WORLD </s>
-0.3010 HEY MYCROFT </s>
-0.3010 HOW ARE YOU
-0.3010 I P ADDRESS
-0.3010 IS IT </s>
-0.3010 IS MY I
-0.3010 IS STEVE JOBS
-0.6021 IS THE TIME
-0.6021 IS THE WEATHER
-0.3010 IT RAIN TODAY?
-0.3010 LAUNCH FIREFOX </s>
-0.3010 ME A JOKE
-0.3010 MY I P
-0.3010 P ADDRESS </s>
-0.3010 RAIN TODAY? </s>
-0.3010 SAY SOMETHING </s>
-0.3010 SPELL COMPUTER </s>
-0.3010 SPELL ROBOT </s>
-0.3010 SPELL VOICE </s>
-0.3010 STEVE JOBS </s>
-0.3010 TELL ME A
-0.3010 THE TIME </s>
-0.3010 THE WEATHER </s>
-0.3010 TIME IS IT
-0.7782 WHAT IS MY
-0.4771 WHAT IS THE
-0.3010 WHAT TIME IS
-0.3010 WHO ARE YOU
-0.3010 WHO IS STEVE
-0.3010 WILL IT RAIN

\end\
