Language model created by QuickLM on Thu Dec  1 14:59:35 EST 2016
Copyright (c) 1996-2010 Carnegie Mellon University and Alexander I. Rudnicky

The model is in standard ARPA format, designed by Doug Paul while he was at MITRE.

The code that was used to produce this language model is available in Open Source.
Please visit http://www.speech.cs.cmu.edu/tools/ for more information

The (fixed) discount mass is 0.5. The backoffs are computed using the ratio method.
This model based on a corpus of 16 sentences and 36 words

\data\
ngram 1=36
ngram 2=54
ngram 3=45

\1-grams:
-1.0054 </s> -0.3010
-1.0054 <s> -0.2559
-2.2095 A -0.2983
-2.2095 ADDRESS -0.2559
-1.9085 ARE -0.2956
-2.2095 COMPUTER -0.2559
-2.2095 FIREFOX -0.2559
-2.2095 HELLO -0.2983
-2.2095 HEY -0.2983
-2.2095 HOW -0.2956
-2.2095 IP -0.2983
-1.5105 IS -0.2846
-1.9085 IT -0.2529
-2.2095 JOBS -0.2559
-2.2095 JOKE -0.2559
-2.2095 LAUNCH -0.2983
-2.2095 ME -0.2983
-2.2095 MY -0.2983
-2.2095 MYCROFT -0.2559
-2.2095 RAIN -0.2983
-2.2095 ROBOT -0.2559
-2.2095 SAY -0.2983
-2.2095 SOMETHING -0.2559
-1.7324 SPELL -0.2929
-2.2095 STEVE -0.2983
-2.2095 TELL -0.2983
-1.9085 THE -0.2929
-1.9085 TIME -0.2407
-2.2095 TODAY? -0.2559
-2.2095 VOICE -0.2559
-2.2095 WEATHER -0.2559
-1.6075 WHAT -0.2818
-1.9085 WHO -0.2818
-2.2095 WILL -0.2956
-2.2095 WORLD -0.2559
-1.9085 YOU -0.2559

\2-grams:
-1.5051 <s> HELLO 0.0000
-1.5051 <s> HEY 0.0000
-1.5051 <s> HOW 0.0000
-1.5051 <s> LAUNCH 0.0000
-1.5051 <s> SAY 0.0000
-1.0280 <s> SPELL 0.0000
-1.5051 <s> TELL 0.0000
-0.9031 <s> WHAT 0.0000
-1.2041 <s> WHO 0.0000
-1.5051 <s> WILL 0.0000
-0.3010 A JOKE 0.0000
-0.3010 ADDRESS </s> -0.3010
-0.3010 ARE YOU 0.0000
-0.3010 COMPUTER </s> -0.3010
-0.3010 FIREFOX </s> -0.3010
-0.3010 HELLO WORLD 0.0000
-0.3010 HEY MYCROFT 0.0000
-0.3010 HOW ARE 0.0000
-0.3010 IP ADDRESS 0.0000
-1.0000 IS IT -0.1761
-1.0000 IS MY 0.0000
-1.0000 IS STEVE 0.0000
-0.6990 IS THE 0.0000
-0.6021 IT </s> -0.3010
-0.6021 IT RAIN 0.0000
-0.3010 JOBS </s> -0.3010
-0.3010 JOKE </s> -0.3010
-0.3010 LAUNCH FIREFOX 0.0000
-0.3010 ME A 0.0000
-0.3010 MY IP 0.0000
-0.3010 MYCROFT </s> -0.3010
-0.3010 RAIN TODAY? 0.0000
-0.3010 ROBOT </s> -0.3010
-0.3010 SAY SOMETHING 0.0000
-0.3010 SOMETHING </s> -0.3010
-0.7782 SPELL COMPUTER 0.0000
-0.7782 SPELL ROBOT 0.0000
-0.7782 SPELL VOICE 0.0000
-0.3010 STEVE JOBS 0.0000
-0.3010 TELL ME 0.0000
-0.6021 THE TIME -0.1761
-0.6021 THE WEATHER 0.0000
-0.6021 TIME </s> -0.3010
-0.6021 TIME IS -0.2553
-0.3010 TODAY? </s> -0.3010
-0.3010 VOICE </s> -0.3010
-0.3010 WEATHER </s> -0.3010
-0.4260 WHAT IS -0.1461
-0.9031 WHAT TIME -0.1761
-0.6021 WHO ARE 0.0000
-0.6021 WHO IS -0.2553
-0.3010 WILL IT -0.1761
-0.3010 WORLD </s> -0.3010
-0.3010 YOU </s> -0.3010

\3-grams:
-0.3010 <s> HELLO WORLD
-0.3010 <s> HEY MYCROFT
-0.3010 <s> HOW ARE
-0.3010 <s> LAUNCH FIREFOX
-0.3010 <s> SAY SOMETHING
-0.7782 <s> SPELL COMPUTER
-0.7782 <s> SPELL ROBOT
-0.7782 <s> SPELL VOICE
-0.3010 <s> TELL ME
-0.4260 <s> WHAT IS
-0.9031 <s> WHAT TIME
-0.6021 <s> WHO ARE
-0.6021 <s> WHO IS
-0.3010 <s> WILL IT
-0.3010 A JOKE </s>
-0.3010 ARE YOU </s>
-0.3010 HELLO WORLD </s>
-0.3010 HEY MYCROFT </s>
-0.3010 HOW ARE YOU
-0.3010 IP ADDRESS </s>
-0.3010 IS IT </s>
-0.3010 IS MY IP
-0.3010 IS STEVE JOBS
-0.6021 IS THE TIME
-0.6021 IS THE WEATHER
-0.3010 IT RAIN TODAY?
-0.3010 LAUNCH FIREFOX </s>
-0.3010 ME A JOKE
-0.3010 MY IP ADDRESS
-0.3010 RAIN TODAY? </s>
-0.3010 SAY SOMETHING </s>
-0.3010 SPELL COMPUTER </s>
-0.3010 SPELL ROBOT </s>
-0.3010 SPELL VOICE </s>
-0.3010 STEVE JOBS </s>
-0.3010 TELL ME A
-0.3010 THE TIME </s>
-0.3010 THE WEATHER </s>
-0.3010 TIME IS IT
-0.7782 WHAT IS MY
-0.4771 WHAT IS THE
-0.3010 WHAT TIME IS
-0.3010 WHO ARE YOU
-0.3010 WHO IS STEVE
-0.3010 WILL IT RAIN

\end\
